svm_type c_svc
nr_class 2
num_kernels 26
-t 4 -w 3.2340655237271578 -u 1.2466340879624984 -f Example/Classification/PrecomputedKernels/kernel_0.test
-t 4 -w 1.1724133755741151 -u 1.2466340879624984 -f Example/Classification/PrecomputedKernels/kernel_1.test
-t 4 -w 3.104768156690505 -u 1.2466340879624984 -f Example/Classification/PrecomputedKernels/kernel_2.test
-t 4 -w 2.4015475994295352 -u 1.2466340879624984 -f Example/Classification/PrecomputedKernels/kernel_3.test
-t 4 -w 1.7802751901474905 -u 1.2466340879624984 -f Example/Classification/PrecomputedKernels/kernel_4.test
-t 4 -w 0.43520220719919284 -u 1.2466340879624984 -f Example/Classification/PrecomputedKernels/kernel_5.test
-t 4 -w 0.41188757927253561 -u 1.2466340879624984 -f Example/Classification/PrecomputedKernels/kernel_6.test
-t 4 -w 1.5949537315254234 -u 1.2466340879624984 -f Example/Classification/PrecomputedKernels/kernel_7.test
-t 4 -w 1.8237018522112229 -u 1.2466340879624984 -f Example/Classification/PrecomputedKernels/kernel_8.test
-t 4 -w 2.8437325681693726 -u 1.2466340879624984 -f Example/Classification/PrecomputedKernels/kernel_9.test
-t 4 -w 2.2467404030412021 -u 1.2466340879624984 -f Example/Classification/PrecomputedKernels/kernel_10.test
-t 4 -w 2.9707338666832133 -u 1.2466340879624984 -f Example/Classification/PrecomputedKernels/kernel_11.test
-t 4 -w 2.8427594764110156 -u 1.2466340879624984 -f Example/Classification/PrecomputedKernels/kernel_12.test
-t 4 -w 0.54549726635504092 -u 1.2466340879624984 -f Example/Classification/PrecomputedKernels/kernel_13.test
-t 4 -w 1.0579325217314719 -u 1.2466340879624984 -f Example/Classification/PrecomputedKernels/kernel_14.test
-t 4 -w 2.7868390688318079 -u 1.2466340879624984 -f Example/Classification/PrecomputedKernels/kernel_15.test
-t 4 -w 1.6798617110817722 -u 1.2466340879624984 -f Example/Classification/PrecomputedKernels/kernel_16.test
-t 4 -w 1.3327269581697607 -u 1.2466340879624984 -f Example/Classification/PrecomputedKernels/kernel_17.test
-t 4 -w 0.4277119275523068 -u 1.2466340879624984 -f Example/Classification/PrecomputedKernels/kernel_18.test
-t 4 -w 0.3626555933639698 -u 1.2466340879624984 -f Example/Classification/PrecomputedKernels/kernel_19.test
-t 4 -w 1.1581301632136567 -u 1.2466340879624984 -f Example/Classification/PrecomputedKernels/kernel_20.test
-t 4 -w 1.6384199336525229 -u 1.2466340879624984 -f Example/Classification/PrecomputedKernels/kernel_21.test
-t 4 -w 1.7764412758072787 -u 1.2466340879624984 -f Example/Classification/PrecomputedKernels/kernel_22.test
-t 4 -w 1.5159905044202804 -u 1.2466340879624984 -f Example/Classification/PrecomputedKernels/kernel_23.test
-t 4 -w 2.6576099686744614 -u 1.2466340879624984 -f Example/Classification/PrecomputedKernels/kernel_24.test
-t 4 -w 2.1939963679898131 -u 1.2466340879624984 -f Example/Classification/PrecomputedKernels/kernel_25.test
total_sv 85
rho -0.0051572380961835409
label -1 1
nr_sv 41 44
SV
10 0:0 
8.0518746477734418 0:31 
10 0:37 
10 0:45 
10 0:57 
7.9455679426614658 0:62 
10 0:65 
7.2997272642712288 0:69 
10 0:72 
10 0:83 
10 0:87 
10 0:98 
10 0:101 
10 0:103 
3.49674487170443 0:108 
3.4779230018006011 0:109 
10 0:112 
10 0:118 
10 0:121 
10 0:130 
10 0:131 
2.1452357882821129 0:132 
10 0:135 
10 0:136 
10 0:141 
10 0:150 
10 0:161 
10 0:166 
10 0:168 
1.6048126313079012 0:169 
10 0:172 
6.3833314735174493 0:174 
10 0:175 
10 0:178 
2.7904419007945691 0:184 
10 0:185 
10 0:189 
10 0:194 
3.5243276476916385 0:195 
10 0:207 
10 0:212 
-0.44788648432193578 0:1 
-3.5688778171089006 0:6 
-4.0857554915222467 0:7 
-10 0:10 
-10 0:14 
-10 0:18 
-10 0:22 
-10 0:26 
-3.1730236611551339 0:27 
-2.4441864880015309 0:33 
-10 0:39 
-5.0834821945727358 0:40 
-1.6095179147776668 0:51 
-2.3076564453785151 0:58 
-10 0:63 
-6.4262860271518853 0:64 
-10 0:66 
-10 0:68 
-7.2394670537828549 0:70 
-10 0:74 
-10 0:79 
-10 0:80 
-7.9057595057721919 0:96 
-10 0:97 
-10 0:99 
-10 0:113 
-4.2027632307950835 0:115 
-10 0:117 
-9.1797285518643132 0:119 
-10 0:122 
-9.8022128469171967 0:123 
-10 0:129 
-6.8032387455630188 0:133 
-10 0:152 
-10 0:162 
-10 0:173 
-2.4401447111196233 0:179 
-10 0:182 
-10 0:186 
-10 0:192 
-10 0:206 
-10 0:208 
-10 0:210 
-10 0:211 
