svm_type c_svc
nr_class 2
num_kernels 2
-t 2 -w 25.606699627943676 -u 0.0025000000000000001 -d 3 -g 1 -r 0
-t 2 -w 4.3403845153421514 -u 0.0025000000000000001 -d 3 -g 2 -r 0
total_sv 273
rho 0.19025281446081244
label 2 1
nr_sv 136 137
SV
10 0:0 2:-0.0705521 3:0.272417 5:1 12:1 24:1 30:-0.198822 31:1 32:1 33:0.364192 34:1 37:1 38:-0.00621758 39:-3.75338e-05 
9.1494030492787122 0:1 1:1 2:-0.0812437 3:0.137851 6:1 13:1 25:1 30:-0.0235543 31:1 32:1 33:0.491236 37:1 38:-0.00419026 39:-3.17048e-05 
3.7617835320538382 0:10 1:1 2:0.0702213 3:0.00975 6:1 18:1 29:1 30:0.248289 31:1 32:1 33:0.152452 34:1 37:1 38:0.00966302 39:-3.75338e-05 
10 0:22 1:1 2:0.0114172 3:-0.0694541 5:1 15:1 29:1 30:-0.0164005 31:1 32:1 33:-0.0592871 34:1 37:1 38:-0.000135644 39:0.000627526 
3.3065427744955462 0:25 1:1 2:-0.0325611 3:-0.161994 6:1 15:1 29:1 30:0.181222 31:1 32:1 33:0.0254087 34:1 37:1 38:0.00432444 39:-3.2e-05 
10 0:26 1:1 2:-0.0325611 3:-0.161994 6:1 15:1 29:1 30:0.181222 31:1 32:1 33:0.0254087 34:1 37:1 38:0.00432444 39:-3.2e-05 
10 0:29 1:1 2:-0.0468166 3:0.312827 6:1 13:1 25:1 30:0.0694447 31:1 33:-0.101635 34:1 36:1 38:-0.00554181 39:-3.75338e-05 
5.382464016004886 0:30 1:1 2:0.0571062 3:0.370007 6:1 16:1 25:1 30:0.572444 31:1 32:1 33:0.152452 34:1 37:1 38:-0.00385238 39:-3.75338e-05 
9.5353629833816278 0:31 2:0.112988 3:-0.0710705 6:1 25:1 30:1.04191 31:1 32:1 33:-0.0169392 34:1 37:1 38:0.0113187 39:2.53309e-05 
10 0:32 1:1 2:-0.0598604 3:-0.192301 6:1 20:1 25:1 30:-0.191221 31:1 33:-0.101635 37:1 38:-0.00621758 39:-3.75338e-05 
6.4866176713664023 0:39 2:0.151549 3:0.413853 6:1 15:1 25:1 30:0.293 31:1 32:1 33:0.491236 37:1 38:-0.00621758 39:4.36295e-05 
10 0:46 1:1 2:0.0779193 3:0.00631513 5:1 16:1 25:1 30:0.0841993 31:1 33:-0.101635 34:1 37:1 38:-0.00446057 39:1.56651e-05 
4.6869601879716409 0:51 1:1 2:-0.0307791 3:-0.128251 6:1 20:1 29:1 30:-0.034732 31:1 32:1 33:0.40654 34:1 37:1 38:0.0134811 39:-1.12295e-05 
10 0:54 1:1 2:0.0618818 3:0.676519 6:1 17:1 30:1.58962 31:1 32:1 33:0.364192 37:1 38:-0.00621758 39:6.73709e-06 
2.8675894301891285 0:58 1:1 2:-0.0456049 3:-0.0508654 6:1 20:1 25:1 30:-0.142933 31:1 32:1 33:0.1948 37:1 38:-0.00621758 39:0.00022289 
10 0:66 2:0.109994 3:0.333032 6:1 10:1 26:1 30:0.263043 31:1 32:1 33:0.279496 34:1 37:1 38:-0.00621758 39:-3.75338e-05 
10 0:67 1:1 2:0.018545 3:0.0198526 6:1 16:1 25:1 30:-0.191221 33:-0.101635 34:1 37:1 38:0.00358109 39:-3.73125e-05 
10 0:74 2:-0.0468166 3:-0.156942 6:1 29:1 30:-0.105823 31:1 33:-0.101635 34:1 37:1 38:-0.000811414 39:0.000178656 
10 0:75 2:0.130166 3:0.356672 6:1 11:1 29:1 30:0.561266 31:1 33:-0.101635 34:1 37:1 38:-0.00621758 39:-3.75338e-05 
5.9931948439691114 0:79 2:0.0298069 3:-0.155326 6:1 13:1 25:1 30:-0.131755 31:1 32:1 33:0.0677567 37:1 38:-0.00621758 39:2.08669e-05 
7.1546294333214124 0:82 1:1 2:0.122468 3:0.151186 6:1 15:1 29:1 30:0.918954 31:1 32:1 33:0.279496 37:1 38:-0.000101855 39:2.35232e-05 
10 0:87 2:0.190752 3:0.211801 6:1 18:1 25:1 30:0.158867 31:1 32:1 33:0.491236 37:1 38:-0.00621758 39:2.15679e-05 
10 0:89 2:0.102866 3:-0.0306603 6:1 12:1 24:1 30:-0.198822 31:1 33:-0.101635 37:1 38:-0.00283872 39:-2.11709e-06 
4.9427735124531296 0:93 1:1 2:0.054754 3:0.191596 6:1 14:1 25:1 30:0.382422 31:1 32:1 33:0.491236 37:1 38:0.00189167 39:0.00013243 
0.26138977723001355 0:94 1:1 2:-0.0414708 3:-0.172096 6:1 15:1 25:1 30:-0.0682653 31:1 32:1 33:0.110105 34:1 37:1 38:0.00432444 39:-3.75338e-05 
5.5086691352236672 0:95 2:0.103437 3:-0.0710705 6:1 15:1 25:1 30:0.0135559 31:1 32:1 33:0.237148 34:1 37:1 38:0.00716267 39:0.000115902 
9.1087685916325967 0:98 1:1 2:0.231736 3:0.615904 6:1 29:1 30:1.36606 31:1 32:1 33:0.279496 34:1 37:1 38:-0.00621758 39:-6.41394e-07 
7.8225864934084548 0:101 1:1 2:-0.096711 3:-0.185634 6:1 18:1 28:1 30:-0.180043 33:-0.101635 37:1 38:0.000540126 39:-3.60581e-05 
9.4298536210701442 0:102 1:1 2:-0.096711 3:-0.185634 6:1 18:1 28:1 30:-0.180043 33:-0.101635 37:1 38:0.000540126 39:-3.60581e-05 
6.4548880276182192 0:103 1:1 2:-0.0634243 3:-0.128251 5:1 16:1 25:1 30:0.0770455 31:1 32:1 33:0.152452 37:1 38:-0.00351449 39:-3.75338e-05 
10 0:109 2:-0.064636 3:0.149569 5:1 25:1 30:0.0211567 33:-0.101635 37:1 38:-0.00067626 39:-3.75338e-05 
3.1821281266921391 0:110 2:-0.0901534 3:0.181494 5:1 15:1 25:1 30:-0.109399 31:1 32:1 33:0.0677567 34:1 37:1 38:-0.00351449 39:-1.90876e-05 
10 0:111 2:-0.0901534 3:0.181494 5:1 15:1 25:1 30:-0.109399 31:1 32:1 33:0.0677567 34:1 37:1 38:-0.00351449 39:-1.90876e-05 
3.9392942826607191 0:114 1:1 2:-0.05872 3:0.277468 5:1 16:1 25:1 30:-0.124154 31:1 33:-0.101635 34:1 37:1 38:-0.000811414 39:-2.64661e-05 
10 0:126 1:1 2:0.0114172 3:-0.150275 6:1 19:1 29:1 30:0.382422 31:1 33:-0.101635 34:1 37:1 38:-0.00067626 39:0.00111665 
4.1879338417422254 0:134 2:-0.0147417 3:-0.173713 6:1 11:1 25:1 30:-0.150534 31:1 32:1 33:0.0677567 37:1 38:0.00662206 39:-1.90876e-05 
10 0:135 1:1 2:0.162882 3:-0.172096 5:1 11:1 29:1 30:0.15529 31:1 33:-0.101635 37:1 38:-0.000135644 39:-2.59496e-05 
6.9635228508603246 0:144 1:1 2:-0.0527326 3:-0.156942 6:1 18:1 25:1 30:0.214756 31:1 32:1 33:-0.0169392 34:1 37:1 38:0.0113525 39:3.6251e-05 
7.5598834252373397 0:147 1:1 2:-0.0444644 3:-0.168863 6:1 15:1 25:1 30:-0.172889 31:1 32:1 33:0.1948 34:1 37:1 38:-0.00297388 39:0.000151503 
5.534391026191229 0:154 2:-0.0776798 3:-0.0710705 6:1 18:1 25:1 30:-0.184067 31:1 32:1 33:0.0254087 37:1 38:-0.00283872 39:-3.73125e-05 
10 0:156 2:-0.0652062 3:0.262314 5:1 29:1 30:-0.131755 31:1 32:1 33:0.0677567 37:1 38:-0.00621758 39:-2.56914e-05 
10 0:158 1:1 2:0.0256727 3:-0.0912756 6:1 11:1 25:1 30:0.203578 31:1 32:1 33:0.1948 37:1 38:-0.0011493 39:9.31956e-06 
10 0:159 1:1 2:0.203225 3:0.393647 6:1 8:1 22:1 30:1.41078 31:1 32:1 33:0.533584 34:1 37:1 38:-0.00621758 39:-6.41394e-07 
10 0:162 2:0.0660159 3:0.211801 6:1 18:1 29:1 30:-0.0423329 31:1 33:-0.101635 37:1 38:-0.00523771 39:-6.65486e-06 
5.65121471113605 0:163 1:1 2:0.120686 3:-0.0205577 6:1 14:1 25:1 30:-0.187644 31:1 33:-0.101635 34:1 37:1 38:0.00138484 39:-3.75338e-05 
9.8161750130769363 0:164 1:1 2:0.120686 3:-0.0205577 6:1 14:1 25:1 30:-0.187644 31:1 33:-0.101635 34:1 37:1 38:0.00138484 39:-3.75338e-05 
5.6210787062805876 0:168 1:1 2:-0.0634243 3:0.232006 6:1 18:1 29:1 30:-0.0794431 31:1 33:-0.101635 37:1 38:-0.00283872 39:-3.75338e-05 
4.9854592025383138 0:169 1:1 2:0.033941 3:-0.106429 5:1 16:1 25:1 30:-0.191221 31:1 32:1 33:-0.0592871 37:1 38:-0.00452815 39:6.25749e-06 
10 0:173 2:-0.0818852 3:-0.18725 6:1 18:1 25:1 30:-0.109399 32:1 33:-0.0592871 37:1 38:0.00189167 39:-9.20044e-06 
0.30460039509525993 0:178 1:1 2:0.00899381 3:-0.0912756 6:1 20:1 29:1 30:0.0470891 31:1 32:1 33:0.152452 37:1 38:-0.000811414 39:3.89073e-05 
8.078567473940895 0:179 1:1 2:0.118904 3:0.82139 6:1 16:1 25:1 30:-0.0423329 31:1 32:1 33:0.0254087 37:1 38:-0.00216295 39:-3.70173e-05 
6.7944109400482615 0:183 1:1 2:0.241288 3:0.252212 6:1 17:1 30:1.58962 31:1 32:1 33:0.1948 34:1 37:1 38:-0.00547423 39:-3.75338e-05 
3.1937080790417376 0:187 1:1 2:-0.0687701 3:-0.17048 5:1 25:1 30:-0.195245 31:1 32:1 33:-0.0592871 34:1 37:1 38:0.0221648 39:-3.53572e-05 
0.34823236360571835 0:191 1:1 2:0.0541838 3:-0.1232 6:1 25:1 30:-0.187644 31:1 32:1 33:0.110105 34:1 37:1 38:0.0100009 39:-3.75338e-05 
7.9676918807408414 0:194 1:1 2:0.0529721 3:0.00975 6:1 20:1 25:1 30:0.114156 31:1 32:1 33:0.321844 34:1 37:1 38:-0.00621758 39:-3.75338e-05 
5.7289785965278481 0:198 1:1 2:0.0553243 3:0.045109 6:1 20:1 29:1 30:0.695399 31:1 32:1 33:0.491236 34:1 37:1 38:0.00726404 39:-3.75338e-05 
6.3480808870157119 0:201 2:-0.0848076 3:-0.183815 6:1 18:1 29:1 30:-0.172889 31:1 32:1 33:0.364192 37:1 38:-0.00351449 39:-3.38815e-05 
1.1350540180157034 0:204 1:1 2:-0.0753277 3:0.00126384 5:1 16:1 25:1 30:0.00237811 31:1 32:1 33:-0.0592871 34:1 37:1 38:-0.00351449 39:-2.64661e-05 
3.8473576516532906 0:205 1:1 2:0.164023 3:0.188161 6:1 8:1 22:1 30:1.0902 31:1 32:1 33:0.364192 34:1 37:1 38:-0.00520392 39:-2.64661e-05 
3.28114711843903 0:206 1:1 2:0.0363644 3:-0.01389 5:1 11:1 25:1 30:-0.176466 31:1 32:1 33:0.321844 34:1 37:1 38:0.00459475 39:-3.75338e-05 
10 0:207 1:1 2:0.0363644 3:-0.01389 5:1 11:1 25:1 30:-0.176466 31:1 32:1 33:0.321844 34:1 37:1 38:0.00459475 39:-3.75338e-05 
10 0:210 1:1 2:-0.0812437 3:0.0350064 6:1 16:1 25:1 30:-0.0459098 31:1 33:-0.101635 36:1 38:-0.00216295 39:-3.75338e-05 
10 0:211 1:1 2:-0.0592902 3:-0.0306603 6:1 15:1 26:1 30:-0.176466 31:1 33:-0.101635 34:1 37:1 38:-0.000811414 39:-3.75338e-05 
9.7605988153002041 0:212 1:1 2:-0.0592902 3:-0.0306603 6:1 15:1 26:1 30:-0.176466 31:1 33:-0.101635 34:1 37:1 38:-0.000811414 39:-3.75338e-05 
3.198641595079684 0:217 2:-0.0640658 3:0.242109 6:1 18:1 25:1 30:-0.161711 31:1 32:1 33:0.110105 34:1 37:1 38:-0.00621758 39:-1.68741e-05 
8.4758368762543377 0:218 1:1 2:-0.0634243 3:-0.185634 6:1 15:1 24:1 30:0.00237811 33:-0.101635 34:1 36:1 38:-0.00621758 39:-3.75338e-05 
8.9633758807971091 0:219 1:1 2:-0.0634243 3:-0.185634 6:1 15:1 24:1 30:0.00237811 33:-0.101635 34:1 36:1 38:-0.00621758 39:-3.75338e-05 
0.80754620450654169 0:220 2:-0.0580785 3:-0.160377 5:1 18:1 25:1 30:-0.0646884 31:1 32:1 33:-0.0169392 34:1 37:1 38:-0.00351449 39:-2.27769e-05 
9.9273743487349044 0:221 2:-0.0580785 3:-0.160377 5:1 18:1 25:1 30:-0.0646884 31:1 32:1 33:-0.0169392 34:1 37:1 38:-0.00351449 39:-2.27769e-05 
10 0:222 2:0.062452 3:0.112392 5:1 18:1 29:1 30:0.516555 31:1 32:1 33:0.491236 37:1 38:-0.00621758 39:4.73188e-05 
2.6458694961891425 0:230 1:1 2:-0.0307791 3:-0.125018 6:1 20:1 29:1 30:0.25589 31:1 32:1 33:0.279496 37:1 38:0.00726404 39:-7.02378e-06 
6.7375280654711345 0:231 1:1 2:0.257895 3:0.0299551 6:1 17:1 30:0.963665 31:1 32:1 33:-0.0592871 34:1 37:1 38:-0.00621758 39:-3.75338e-05 
8.9440683487634125 0:232 2:-0.0907949 3:0.191596 6:1 16:1 25:1 30:-0.0535107 31:1 32:1 33:0.152452 34:1 37:1 38:-0.00486604 39:-1.53984e-05 
2.8232673672750135 0:237 2:0.191393 3:0.656314 6:1 10:1 26:1 30:0.695399 31:1 32:1 33:0.448888 37:1 38:-0.00621758 39:0.000209645 
10 0:238 2:0.191393 3:0.656314 6:1 10:1 26:1 30:0.695399 31:1 32:1 33:0.448888 37:1 38:-0.00621758 39:0.000209645 
7.6263487475882101 0:239 1:1 2:-0.0236514 3:-0.156942 6:1 14:1 25:1 30:-0.112976 31:1 32:1 33:0.0254087 34:1 37:1 38:0.00716267 39:-3.75338e-05 
7.8484589177945567 0:243 1:1 2:-0.0865895 3:0.0703654 6:1 16:1 29:1 30:-0.0682653 31:1 32:1 33:0.1948 37:1 38:-0.00351449 39:7.14464e-05 
0.40388206610122479 0:246 1:1 2:-0.0188758 3:0.413853 6:1 15:1 29:1 30:0.278245 31:1 32:1 33:0.364192 37:1 38:-0.00621758 39:4.66916e-05 
1.3159147428867772 0:250 1:1 2:0.0499784 3:-0.0575331 6:1 16:1 25:1 30:0.158867 31:1 32:1 33:0.491236 37:1 38:0.00672342 39:1.20496e-05 
10 0:251 1:1 2:0.29831 3:0.524981 6:1 8:1 22:1 30:-0.198822 31:1 33:-0.101635 34:1 37:1 38:-0.00621758 39:-3.75338e-05 
8.5636700877957601 0:252 2:-0.0883715 3:0.154621 6:1 20:1 29:1 30:-0.131755 31:1 32:1 33:0.1948 37:1 38:-0.00297388 39:-3.75338e-05 
6.3888335915395702 0:255 1:1 2:-0.0325611 3:-0.131686 5:1 16:1 25:1 30:-0.165288 31:1 33:-0.101635 34:1 37:1 38:0.00256744 39:1.75661e-06 
7.5565099817273023 0:257 1:1 2:0.159318 3:0.196647 6:1 17:1 25:1 30:0.576021 31:1 32:1 33:0.110105 37:1 38:-0.00621758 39:-3.75338e-05 
4.1247102369968873 0:260 2:0.177708 3:0.454263 6:1 12:1 22:1 30:-0.198822 31:1 32:1 33:0.533584 37:1 38:-0.00621758 39:-2.84214e-05 
10 0:261 2:0.177708 3:0.454263 6:1 12:1 22:1 30:-0.198822 31:1 32:1 33:0.533584 37:1 38:-0.00621758 39:-2.84214e-05 
10 0:262 2:-0.0788915 3:0.285954 6:1 15:1 29:1 30:0.337711 31:1 33:-0.101635 37:1 38:0.00527052 39:-3.75338e-05 
8.9454927497353331 0:266 1:1 2:-0.0545146 3:-0.131686 6:1 9:1 29:1 30:-0.0311552 31:1 32:1 33:0.152452 37:1 38:0.000540126 39:-2.547e-05 
3.8123482491227221 0:273 1:1 2:-0.110396 3:-0.161994 6:1 15:1 25:1 30:-0.0423329 31:1 32:1 33:0.110105 34:1 37:1 38:0.00567598 39:-1.2078e-05 
6.8113359039910639 0:274 1:1 2:0.0725734 3:-0.153507 6:1 25:1 30:0.0247336 31:1 33:-0.101635 37:1 38:0.0110146 39:-1.53984e-05 
10 0:283 2:0.285195 3:-0.192301 6:1 15:1 25:1 30:-0.198822 33:-0.101635 38:-4.89689e-07 39:-3.75338e-05 
10 0:284 1:1 2:0.0743554 3:-0.184017 6:1 10:1 29:1 30:0.259467 31:1 33:-0.101635 37:1 38:0.00729783 39:-3.75338e-05 
9.9592055016483503 0:287 2:-0.0610721 3:0.282519 6:1 29:1 30:-0.154111 31:1 32:1 33:-0.0169392 34:1 37:1 38:0.00391898 39:-1.72061e-05 
8.3138839228711294 0:289 2:-0.0997046 3:0.171391 6:1 13:1 25:1 30:-0.0758662 31:1 33:-0.101635 34:1 37:1 38:-0.00621758 39:-3.75338e-05 
10 0:290 2:-0.0997046 3:0.171391 6:1 13:1 25:1 30:-0.0758662 31:1 33:-0.101635 34:1 37:1 38:-0.00621758 39:-3.75338e-05 
8.7561063808722981 0:291 1:1 2:0.000725586 3:0.460931 6:1 9:1 25:1 30:0.0694447 31:1 32:1 33:0.279496 37:1 38:0.00222955 39:-1.06024e-05 
7.6878543200110938 0:293 1:1 2:0.200303 3:-0.13007 6:1 18:1 25:1 30:-0.187644 31:1 33:-0.101635 34:1 37:1 38:0.00256744 39:-3.75338e-05 
6.1239297917753088 0:295 2:0.239506 3:0.373442 6:1 8:1 22:1 30:-0.198822 31:1 32:1 33:0.364192 34:1 37:1 38:-0.00621758 39:1.41156e-05 
9.6512000686151449 0:296 2:0.239506 3:0.373442 6:1 8:1 22:1 30:-0.198822 31:1 32:1 33:0.364192 34:1 37:1 38:-0.00621758 39:1.41156e-05 
10 0:301 1:1 2:0.173574 3:0.272417 6:1 8:1 22:1 30:0.248289 31:1 32:1 33:0.110105 37:1 38:-0.00621758 39:0.000289001 
9.7214838127211713 0:302 1:1 2:-0.028427 3:-0.109864 5:1 13:1 25:1 30:-0.0199774 31:1 32:1 33:0.0254087 34:1 37:1 38:0.00628417 39:-1.68741e-05 
3.5906099231164532 0:311 1:1 2:-0.0794618 3:0.0905705 6:1 15:1 25:1 30:-0.0535107 31:1 32:1 33:0.0254087 37:1 38:0.000540126 39:1.37835e-05 
8.2326021736553638 0:314 1:1 2:0.184265 3:0.151186 6:1 17:1 29:1 30:0.427133 31:1 32:1 33:0.0254087 37:1 38:-0.00621758 39:-3.75338e-05 
10 0:315 1:1 2:-0.127004 3:-0.0306603 5:1 16:1 25:1 30:-0.0423329 31:1 32:1 33:-0.0169392 34:1 37:1 38:-0.00216295 39:-6.41394e-07 
4.7826806558171837 0:318 2:-0.0794618 3:0.110776 6:1 11:1 25:1 30:-0.0646884 31:1 32:1 33:-0.0592871 37:1 38:-0.000811414 39:-2.8901e-05 
10 0:319 2:-0.0735457 3:-0.0979433 6:1 10:1 26:1 30:-0.154111 31:1 32:1 33:0.0677567 36:1 38:-0.00351449 39:-3.75338e-05 
4.5440871874006588 0:320 1:1 2:0.0749256 3:-0.150275 6:1 16:1 25:1 30:0.248289 31:1 32:1 33:0.152452 34:1 37:1 38:0.0106767 39:0.000331391 
7.5238199192579955 0:330 1:1 2:-0.0432527 3:-0.177147 6:1 14:1 25:1 30:-0.176466 31:1 32:1 33:0.0254087 37:1 38:0.00256744 39:0.000519837 
8.6670046318811753 0:332 1:1 2:-0.05872 3:-0.131686 6:1 15:1 29:1 30:-0.0722893 31:1 33:-0.101635 37:1 38:0.00804117 39:-3.01553e-05 
2.8993271247344268 0:333 1:1 2:0.0832651 3:-0.0710705 6:1 18:1 29:1 30:0.337711 31:1 32:1 33:0.364192 37:1 38:-0.00351449 39:-3.75338e-05 
10 0:338 2:0.0695798 3:-0.151891 6:1 10:1 26:1 30:0.00237811 31:1 33:-0.101635 34:1 37:1 38:-0.00621758 39:-2.64661e-05 
1.01947482271816 0:343 1:1 2:0.174144 3:0.312827 6:1 11:1 29:1 30:0.516555 31:1 33:-0.101635 34:1 37:1 38:-0.00540665 39:3.7284e-05 
10 0:344 1:1 2:0.174144 3:0.312827 6:1 11:1 29:1 30:0.516555 31:1 33:-0.101635 34:1 37:1 38:-0.00540665 39:3.7284e-05 
1.1270137181912703 0:347 1:1 2:0.018545 3:0.178261 6:1 15:1 25:1 30:0.203578 31:1 32:1 33:0.40654 34:1 37:1 38:-0.00621758 39:-2.93806e-05 
3.4244458007445258 0:349 2:0.0476263 3:0.0501603 6:1 11:1 25:1 30:-0.109399 31:1 33:-0.101635 34:1 37:1 38:-0.00621758 39:-3.75338e-05 
10 0:350 2:0.0476263 3:0.0501603 6:1 11:1 25:1 30:-0.109399 31:1 33:-0.101635 34:1 37:1 38:-0.00621758 39:-3.75338e-05 
5.3033187443576901 0:352 1:1 2:-0.00169785 3:0.595699 6:1 15:1 25:1 30:0.427133 31:1 32:1 33:0.575932 37:1 38:-0.00621758 39:0.000146928 
10 0:354 1:1 2:-0.0788915 3:0.211801 5:1 15:1 25:1 30:0.0247336 31:1 33:-0.101635 36:1 38:-0.00486604 39:-3.75338e-05 
8.8777634503209644 0:355 1:1 2:0.0410687 3:0.0703654 6:1 14:1 29:1 30:0.181222 31:1 32:1 33:0.40654 34:1 37:1 38:-0.00307524 39:-3.75338e-05 
8.1216913578322583 0:357 1:1 2:0.0363644 3:-0.0609679 6:1 18:1 29:1 30:0.605977 31:1 33:-0.101635 34:1 37:1 38:-0.00277115 39:-1.39596e-05 
3.6355629266781495 0:359 2:-0.0331313 3:0.353237 6:1 18:1 29:1 30:0.248289 31:1 32:1 33:-0.0169392 37:1 38:-0.00621758 39:0.000146928 
0.8268255341238947 0:361 1:1 2:0.0541838 3:-0.126635 6:1 15:1 25:1 30:-0.0646884 31:1 32:1 33:0.321844 37:1 38:6.70873e-05 39:0.000135861 
4.0921225406898296 0:363 1:1 2:-0.0883715 3:0.191596 6:1 16:1 25:1 30:-0.0646884 31:1 33:-0.101635 37:1 38:-0.00216295 39:4.38509e-05 
10 0:364 1:1 2:-0.0883715 3:0.191596 6:1 16:1 25:1 30:-0.0646884 31:1 33:-0.101635 37:1 38:-0.00216295 39:4.38509e-05 
8.1714425895438723 0:367 2:-0.0937173 3:0.181494 6:1 18:1 25:1 30:-0.0906208 31:1 32:1 33:0.0677567 37:1 38:-0.00419026 39:-1.76119e-05 
4.1780126246833031 0:369 2:-0.0592902 3:0.045109 6:1 18:1 25:1 30:0.0846464 31:1 32:1 33:0.321844 37:1 38:-0.00216295 39:-2.84952e-05 
10 0:374 2:0.0672276 3:-0.109864 5:1 18:1 29:1 30:-0.187644 31:1 32:1 33:0.872367 34:1 37:1 38:0.0091562 39:8.06522e-06 
5.6678379330206203 0:375 1:1 2:0.0256727 3:0.823006 6:1 29:1 30:-0.0535107 31:1 32:1 33:-0.0592871 34:1 37:1 38:0.0111835 39:-1.90876e-05 
4.1933991104628268 0:378 1:1 2:-0.0396888 3:-0.151891 6:1 18:1 25:1 30:-0.0423329 31:1 33:-0.101635 34:1 37:1 38:0.00324321 39:-3.75338e-05 
0.36649794747483944 0:380 1:1 2:0.0114172 3:-0.0644028 5:1 25:1 30:0.0841993 31:1 32:1 33:0.0254087 34:1 37:1 38:0.00662206 39:-3.75338e-05 
4.910081461373486 0:382 1:1 2:0.0595296 3:-0.17048 5:1 13:1 25:1 30:-0.154111 31:1 32:1 33:0.0254087 37:1 38:0.000540126 39:-6.41394e-07 
10 0:383 1:1 2:0.0595296 3:-0.17048 5:1 13:1 25:1 30:-0.154111 31:1 32:1 33:0.0254087 37:1 38:0.000540126 39:-6.41394e-07 
8.3230302135276766 0:387 2:0.0440624 3:0.0299551 6:1 18:1 25:1 30:-0.187644 31:1 33:-0.101635 34:1 37:1 38:0.0014862 39:-3.75338e-05 
10 0:388 1:1 2:-0.0634243 3:-0.0896592 5:1 15:1 29:1 30:0.0323345 31:1 33:-0.101635 37:1 38:-0.00621758 39:-3.75338e-05 
9.7296924157025231 0:396 2:-0.0616423 3:0.275852 6:1 20:1 25:1 30:-0.195245 31:1 33:-0.101635 37:1 38:-0.00351449 39:1.22341e-05 
10 0:397 2:-0.0907949 3:0.193213 6:1 13:1 25:1 30:-0.191221 31:1 33:-0.101635 37:1 38:-0.00283872 39:-3.75338e-05 
10 0:399 1:1 2:0.0672276 3:-0.190685 6:1 17:1 25:1 30:-0.195245 32:1 33:-0.0592871 36:1 38:0.012704 39:-3.75338e-05 
-6.7277589698068825 0:6 1:1 2:-0.026645 3:-0.151891 5:1 9:1 29:1 30:0.0694447 33:-0.101635 37:1 38:-0.000270798 39:-1.77226e-05 
-1.2496790920618968 0:7 2:0.172362 3:0.0938033 6:1 11:1 29:1 30:0.404777 31:1 32:1 33:0.0254087 34:1 37:1 38:-0.00283872 39:-3.56892e-05 
-10 0:8 2:0.172362 3:0.0938033 6:1 11:1 29:1 30:0.404777 31:1 32:1 33:0.0254087 34:1 37:1 38:-0.00283872 39:-3.56892e-05 
-10 0:9 2:0.172362 3:0.0938033 6:1 11:1 29:1 30:0.404777 31:1 32:1 33:0.0254087 34:1 37:1 38:-0.00283872 39:-3.56892e-05 
-10 0:11 1:1 2:-0.0776798 3:-0.141788 5:1 15:1 29:1 30:-0.0758662 31:1 32:1 33:0.0254087 34:1 37:1 38:-0.00148718 39:-2.97864e-05 
-10 0:12 1:1 2:-0.0776798 3:-0.141788 5:1 15:1 29:1 30:-0.0758662 31:1 32:1 33:0.0254087 34:1 37:1 38:-0.00148718 39:-2.97864e-05 
-4.2002464450433381 0:27 2:-0.0794618 3:0.232006 5:1 29:1 30:-0.198822 33:-0.101635 34:1 37:1 38:-0.00101414 39:-3.63533e-05 
-8.4122505592489567 0:28 1:1 2:0.147985 3:-0.136737 5:1 15:1 29:1 30:0.647111 31:1 33:-0.101635 34:1 37:1 38:0.000540126 39:-3.38446e-05 
-3.7496228910081326 0:33 1:1 2:-0.0640658 3:-0.131686 5:1 13:1 25:1 30:-0.150534 33:-0.101635 34:1 37:1 38:-0.00216295 39:-3.5062e-05 
-5.466364770506198 0:37 2:-0.0503805 3:-0.121583 5:1 15:1 25:1 30:-0.184067 33:-0.101635 37:1 38:-0.00175749 39:-3.75338e-05 
-1.5935521429395247 0:40 1:1 2:0.00542992 3:-0.0508654 6:1 11:1 25:1 30:-0.154111 33:-0.101635 34:1 37:1 38:0.00162136 39:-3.75338e-05 
-1.1679057676178672 0:41 1:1 2:-0.0242216 3:-0.18725 5:1 11:1 25:1 30:-0.191221 33:-0.101635 37:1 38:0.00108074 39:3.99403e-05 
-2.2443076615350708 0:42 1:1 2:-0.0895832 3:-0.121583 5:1 15:1 25:1 30:0.00997899 33:-0.101635 34:1 37:1 38:-0.00243326 39:-3.73125e-05 
-9.6045477070894094 0:44 1:1 2:-0.028427 3:-0.0609679 5:1 18:1 29:1 30:0.25589 32:1 33:-0.0169392 34:1 37:1 38:0.00625038 39:-3.74969e-05 
-8.2327369148174281 0:45 2:0.0410687 3:-0.0912756 6:1 10:1 29:1 30:-0.180043 33:-0.101635 37:1 38:0.00256744 39:-2.84583e-05 
-10 0:47 2:-0.0860193 3:-0.185634 6:1 18:1 25:1 30:-0.195245 33:-0.101635 34:1 37:1 38:0.00662206 39:-3.75338e-05 
-10 0:48 1:1 2:-0.0717638 3:0.272417 6:1 10:1 25:1 30:-0.154111 31:1 33:-0.101635 34:1 37:1 38:-0.00283872 39:-3.50251e-05 
-8.0689963160007743 0:50 1:1 2:-0.00226808 3:-0.0777382 6:1 8:1 22:1 30:-0.198822 32:1 33:0.110105 37:1 38:-0.000270798 39:-3.21475e-05 
-4.2099363956894642 0:53 1:1 2:-0.0153119 3:-0.141788 6:1 16:1 25:1 30:-0.0423329 33:-0.101635 37:1 38:0.000540126 39:-3.75338e-05 
-10 0:57 1:1 2:-0.0605019 3:-0.192301 6:1 11:1 25:1 30:-0.109399 32:1 33:0.364192 36:1 38:-0.00621758 39:-3.75338e-05 
-4.5417962954928335 0:60 2:0.0256727 3:-0.0407628 6:1 8:1 22:1 30:-0.198822 32:1 33:0.152452 37:1 38:-0.00621758 39:-3.01553e-05 
-2.1493527383567921 0:62 1:1 2:0.0595296 3:0.00975 6:1 10:1 26:1 30:-0.180043 33:-0.101635 37:1 38:0.0123661 39:-3.75338e-05 
-3.9264710465139094 0:64 2:-0.0485985 3:0.359905 6:1 18:1 29:1 30:-0.0646884 33:-0.101635 37:1 38:0.00324321 39:-3.74969e-05 
-10 0:65 2:-0.0485985 3:0.359905 6:1 18:1 29:1 30:-0.0646884 33:-0.101635 37:1 38:0.00324321 39:-3.74969e-05 
-8.1843543604051625 0:70 2:-0.0954992 3:0.211801 5:1 18:1 29:1 30:-0.184067 33:-0.101635 37:1 38:0.00527052 39:-3.75338e-05 
-7.4963261721607068 0:73 2:0.0535423 3:-0.0306603 6:1 15:1 25:1 30:0.0694447 33:-0.101635 37:1 38:0.0100009 39:-3.75338e-05 
-4.7714988064953436 0:77 1:1 2:0.0476263 3:0.216853 5:1 11:1 25:1 30:-0.187644 33:-0.101635 37:1 38:-0.000811414 39:-3.75338e-05 
-10 0:78 1:1 2:-0.026645 3:-0.0306603 5:1 10:1 29:1 30:0.315355 31:1 32:1 33:-0.0169392 34:1 37:1 38:-0.00368344 39:-3.75338e-05 
-9.4344614105319788 0:80 1:1 2:0.0143396 3:-0.182199 6:1 10:1 26:1 30:0.158867 33:-0.101635 34:1 36:1 38:0.0079736 39:-3.75338e-05 
-9.8800926671835967 0:84 1:1 2:-0.0776798 3:-0.158559 5:1 15:1 25:1 30:-0.0199774 33:-0.101635 34:1 36:1 38:0.00189167 39:-3.75338e-05 
-6.5746214742464213 0:86 1:1 2:-0.0681999 3:-0.160377 6:1 16:1 25:1 30:-0.172889 32:1 33:-0.0592871 37:1 38:0.0079736 39:-2.70933e-05 
-4.117443984087811 0:90 1:1 2:-0.0498103 3:0.353237 5:1 8:1 22:1 30:-0.198822 33:-0.101635 37:1 38:-4.89689e-07 39:-3.75338e-05 
-2.2942853780742758 0:96 2:-0.066418 3:-0.141788 5:1 8:1 22:1 30:0.0918002 33:-0.101635 37:1 38:0.00324321 39:-3.75338e-05 
-5.4475104745633782 0:97 1:1 2:-0.0907949 3:-0.049249 5:1 8:1 22:1 30:-0.198822 33:-0.101635 34:1 37:1 38:-0.000135644 39:-3.74969e-05 
-10 0:99 1:1 2:0.0232493 3:-0.0306603 6:1 9:1 26:1 30:0.918954 31:1 33:-0.101635 34:1 37:1 38:-4.89689e-07 39:-3.75338e-05 
-10 0:100 1:1 2:0.0969504 3:-0.131686 6:1 15:1 25:1 30:0.0247336 31:1 33:-0.101635 34:1 37:1 38:-0.00148718 39:-3.75338e-05 
-5.9346233673535878 0:105 2:0.0107757 3:-0.126635 6:1 9:1 25:1 30:-0.150534 33:-0.101635 34:1 37:1 38:-0.00621758 39:-3.75338e-05 
-8.5729977782591185 0:108 1:1 2:-0.094929 3:-0.185634 6:1 9:1 25:1 30:-0.176466 33:-0.101635 34:1 36:1 38:0.00324321 39:-3.75338e-05 
-6.3896120157090115 0:112 1:1 2:-0.0634243 3:-0.161994 6:1 10:1 25:1 30:-0.0570876 32:1 33:-0.0592871 34:1 37:1 38:0.00729783 39:-3.72018e-05 
-7.6200036977881354 0:113 1:1 2:0.0684393 3:-0.141788 5:1 16:1 25:1 30:-0.176466 33:-0.101635 37:1 38:-0.00621758 39:-3.03398e-05 
-9.9152613957954738 0:115 1:1 2:-0.00640218 3:-0.0912756 6:1 20:1 29:1 30:0.00237811 33:-0.101635 34:1 36:1 38:0.00527052 39:-3.75338e-05 
-2.3984983228606338 0:117 2:-0.0212992 3:-0.049249 6:1 10:1 26:1 30:-0.154111 31:1 33:-0.101635 34:1 37:1 38:-0.00043974 39:-3.75338e-05 
-9.1140044248485825 0:118 2:-0.0212992 3:-0.049249 6:1 10:1 26:1 30:-0.154111 31:1 33:-0.101635 34:1 37:1 38:-0.00043974 39:-3.75338e-05 
-2.3764044704830685 0:125 2:-0.0699818 3:-0.121583 5:1 12:1 24:1 30:-0.198822 33:-0.101635 37:1 38:-0.000811414 39:-3.75338e-05 
-10 0:127 2:-0.0444644 3:-0.108046 6:1 15:1 29:1 30:0.0470891 31:1 33:-0.101635 34:1 37:1 38:0.00594629 39:-3.74969e-05 
-10 0:128 2:-0.0444644 3:-0.108046 6:1 15:1 29:1 30:0.0470891 31:1 33:-0.101635 34:1 37:1 38:0.00594629 39:-3.74969e-05 
-2.7343937390443145 0:130 1:1 2:-0.0153119 3:-0.141788 6:1 15:1 29:1 30:-0.176466 32:1 33:-0.0169392 34:1 37:1 38:0.00729783 39:-3.35494e-05 
-6.0860898011660689 0:131 1:1 2:0.0666574 3:-0.172096 5:1 14:1 25:1 30:-0.154111 33:-0.101635 34:1 37:1 38:-0.00182507 39:-3.75338e-05 
-10 0:136 1:1 2:-0.0468166 3:0.292622 6:1 11:1 25:1 30:0.00237811 31:1 32:1 33:-0.0169392 34:1 37:1 38:-0.00216295 39:-3.73494e-05 
-10 0:137 1:1 2:-0.0468166 3:0.292622 6:1 11:1 25:1 30:0.00237811 31:1 32:1 33:-0.0169392 34:1 37:1 38:-0.00216295 39:-3.73494e-05 
-5.1104210061480497 0:138 2:-0.0355547 3:-0.0896592 5:1 8:1 22:1 30:-0.198822 33:-0.101635 34:1 37:1 38:-0.000135644 39:-3.53203e-05 
-4.8946893913336798 0:143 1:1 2:-0.0860193 3:-0.180582 6:1 11:1 25:1 30:-0.172889 33:-0.101635 37:1 38:0.00324321 39:-2.4105e-05 
-7.582425055389578 0:148 1:1 2:-0.0141714 3:-0.000352565 6:1 14:1 25:1 30:-0.0199774 32:1 33:-0.0592871 34:1 37:1 38:0.00932514 39:-3.50251e-05 
-9.8392561431947225 0:151 1:1 2:0.0826949 3:-0.101378 6:1 10:1 26:1 30:-0.131755 31:1 33:-0.101635 37:1 38:0.012704 39:-3.75338e-05 
-6.6021966520776134 0:152 1:1 2:1.28071e-05 3:-0.0710705 5:1 10:1 26:1 30:0.427133 33:-0.101635 37:1 38:-0.00621758 39:-3.74969e-05 
-8.5446639497408068 0:155 1:1 2:0.0666574 3:-0.101378 5:1 29:1 30:0.695399 31:1 33:-0.101635 34:1 37:1 38:-0.000270798 39:-3.75338e-05 
-7.1696755769775455 0:157 2:-0.0515922 3:-0.0912756 5:1 10:1 26:1 30:0.203578 33:-0.101635 37:1 38:0.000540126 39:-2.07109e-05 
-9.428857444416467 0:165 1:1 2:-0.108614 3:-0.0811731 6:1 13:1 25:1 30:-0.139356 32:1 33:-0.0592871 37:1 38:-0.00351449 39:-3.67591e-05 
-1.0793509996189481 0:175 2:0.181842 3:-0.178764 6:1 10:1 26:1 30:-0.109399 31:1 33:-0.101635 34:1 37:1 38:0.00229713 39:4.35189e-05 
-9.980433151285844 0:176 2:0.181842 3:-0.178764 6:1 10:1 26:1 30:-0.109399 31:1 33:-0.101635 34:1 37:1 38:0.00229713 39:4.35189e-05 
-5.8721014206759179 0:177 1:1 2:-0.109185 3:-0.158559 6:1 14:1 25:1 30:-0.191221 31:1 33:-0.101635 36:1 38:0.000540126 39:-3.75338e-05 
-8.1006635951796895 0:180 1:1 2:0.0903929 3:-0.172096 6:1 14:1 25:1 30:0.762466 31:1 33:-0.101635 36:1 38:0.00729783 39:-3.75338e-05 
-1.8671291555667739 0:181 1:1 2:8.40864e-05 3:-0.161994 5:1 13:1 25:1 30:0.114156 33:-0.101635 34:1 37:1 38:0.00459475 39:-3.75338e-05 
-8.3915386730980419 0:186 2:0.00250753 3:-0.0660192 6:1 8:1 22:1 30:0.0730215 32:1 33:-0.0169392 34:1 37:1 38:0.000540126 39:-3.73863e-05 
-2.9264308912173806 0:188 2:1.28071e-05 3:-0.131686 6:1 8:1 22:1 30:-0.198822 32:1 33:-0.0169392 34:1 37:1 38:0.000540126 39:-3.36601e-05 
-6.2904092742265743 0:190 1:1 2:0.048838 3:-0.163812 6:1 15:1 25:1 30:-0.165288 32:1 33:-0.0169392 37:1 38:0.00138484 39:-1.90876e-05 
-9.1035002923328712 0:192 1:1 2:-0.0954992 3:-0.0928921 6:1 15:1 28:1 30:-0.112976 32:1 33:-0.0169392 34:1 37:1 38:-0.000811414 39:-1.5878e-05 
-9.6900311679819122 0:195 1:1 2:0.00842357 3:-0.0979433 6:1 9:1 29:1 30:0.315355 33:-0.101635 34:1 37:1 38:0.00364867 39:-3.75338e-05 
-5.6635271962104436 0:196 1:1 2:-0.0925769 3:0.0384413 6:1 9:1 25:1 30:-0.150534 33:-0.101635 37:1 38:-0.00216295 39:-3.75338e-05 
-10 0:199 1:1 2:-0.042041 3:-0.0609679 6:1 15:1 29:1 30:0.00595499 32:1 33:-0.0592871 34:1 37:1 38:0.00783844 39:-3.67591e-05 
-6.9653727217063617 0:200 1:1 2:-0.0747574 3:0.215236 5:1 17:1 29:1 30:-0.087044 33:-0.101635 37:1 38:0.00256744 39:-3.75338e-05 
-3.2644611097722711 0:209 1:1 2:-0.0694116 3:-0.13007 6:1 11:1 25:1 30:-0.191221 33:-0.101635 34:1 37:1 38:0.00581113 39:-3.75338e-05 
-7.7659233441314894 0:213 1:1 2:-0.056938 3:-0.158559 6:1 10:1 29:1 30:-0.191221 33:-0.101635 34:1 37:1 38:0.0012159 39:-3.73494e-05 
-10 0:215 1:1 2:-0.0865895 3:-0.131686 5:1 20:1 25:1 30:-0.0199774 31:1 33:-0.101635 34:1 37:1 38:-0.00283872 39:-3.6796e-05 
-8.9231603386544176 0:224 1:1 2:-0.0295674 3:0.312827 6:1 13:1 26:1 30:-0.176466 33:-0.101635 34:1 37:1 38:0.0181101 39:-3.75338e-05 
-5.3407022546601528 0:225 1:1 2:0.0179035 3:0.0703654 6:1 13:1 25:1 30:-0.187644 31:1 33:-0.101635 34:1 37:1 38:0.00875073 39:-3.75338e-05 
-10 0:226 1:1 2:0.0179035 3:0.0703654 6:1 13:1 25:1 30:-0.187644 31:1 33:-0.101635 34:1 37:1 38:0.00875073 39:-3.75338e-05 
-7.7298371378654664 0:228 1:1 2:-0.0034798 3:-0.0676356 6:1 15:1 25:1 30:0.0247336 32:1 33:-0.0169392 34:1 37:1 38:-0.000811414 39:-3.60212e-05 
-10 0:229 1:1 2:1.28071e-05 3:-0.172096 6:1 15:1 26:1 30:-0.124154 31:1 33:-0.101635 34:1 36:1 38:0.00459475 39:-3.75338e-05 
-9.6315530740819071 0:233 2:-0.0307791 3:-0.180582 6:1 14:1 29:1 30:-0.187644 32:1 33:-0.0592871 34:1 37:1 38:0.0029729 39:-3.35494e-05 
-10 0:234 2:-0.0854491 3:-0.165428 5:1 15:1 25:1 30:-0.109399 32:1 33:-0.0592871 37:1 38:0.0613594 39:-3.746e-05 
-7.6312153441930795 0:235 2:0.133159 3:-0.158559 6:1 13:1 25:1 30:-0.154111 33:-0.101635 34:1 37:1 38:0.00189167 39:-3.32174e-05 
-8.7752022758757278 0:236 1:1 2:0.0328005 3:0.540135 6:1 16:1 25:1 30:-0.191221 33:-0.101635 37:1 38:0.00459475 39:9.35081e-05 
-7.0889628918624323 0:241 2:0.00129581 3:-0.0710705 5:1 12:1 24:1 30:-0.198822 33:-0.101635 37:1 38:-0.000811414 39:-3.6796e-05 
-10 0:247 2:-0.0384771 3:-0.111481 6:1 12:1 24:1 30:-0.198822 33:-0.101635 34:1 37:1 38:0.00310805 39:-3.74969e-05 
-10 0:253 2:-0.064636 3:0.151186 6:1 18:1 25:1 30:-0.0423329 31:1 32:1 33:0.321844 37:1 38:-0.00351449 39:-1.01032e-06 
-10 0:254 2:-0.064636 3:0.151186 6:1 18:1 25:1 30:-0.0423329 31:1 32:1 33:0.321844 37:1 38:-0.00351449 39:-1.01032e-06 
-5.4330088718331089 0:256 2:0.0119875 3:-0.0710705 5:1 13:1 25:1 30:-0.0199774 33:-0.101635 37:1 38:-0.000135644 39:-3.75338e-05 
-7.5873259701282629 0:259 1:1 2:0.0060714 3:-0.104813 5:1 11:1 22:1 30:-0.198822 33:-0.101635 37:1 38:-0.00216295 39:-3.75338e-05 
-2.4333921875965041 0:265 2:1.28071e-05 3:0.262314 6:1 8:1 22:1 30:-0.198822 33:-0.101635 37:1 38:-4.89689e-07 39:0.000154307 
-8.7799838284876319 0:267 1:1 2:-0.0741159 3:-0.182199 5:1 15:1 29:1 30:-0.176466 33:-0.101635 37:1 38:0.00324321 39:-3.00078e-05 
-10 0:268 1:1 2:0.033941 3:-0.0391464 6:1 16:1 25:1 30:-0.0946448 31:1 33:-0.101635 34:1 37:1 38:0.000540126 39:-3.75338e-05 
-10 0:271 2:-0.00704368 3:0.238674 6:1 18:1 29:1 30:-0.191221 32:1 33:0.40654 34:1 37:1 38:-0.00185886 39:-3.74232e-05 
-10 0:272 1:1 2:0.165805 3:0.434058 6:1 17:1 30:-0.198822 31:1 32:1 33:0.745323 37:1 38:-0.00108172 39:-3.27378e-05 
-10 0:276 1:1 2:-0.0409006 3:0.326364 6:1 20:1 25:1 30:-0.154111 33:-0.101635 37:1 38:-0.00621758 39:-3.746e-05 
-7.7375364692485196 0:278 1:1 2:0.222256 3:0.0905705 6:1 17:1 30:-0.198822 33:-0.101635 37:1 38:-0.00621758 39:-3.70911e-05 
-4.4653800961756742 0:279 1:1 2:0.064234 3:-0.0593515 6:1 14:1 25:1 30:0.114156 33:-0.101635 34:1 36:1 38:0.00729783 39:-3.75338e-05 
-8.2619455762010183 0:281 2:-0.108614 3:-0.183815 6:1 13:1 25:1 30:-0.187644 33:-0.101635 37:1 38:0.000540126 39:-3.74969e-05 
-9.5772643332775296 0:285 1:1 2:-0.0509507 3:-0.111481 6:1 17:1 23:1 30:-0.184067 32:1 33:-0.0169392 37:1 38:0.00459475 39:1.04263e-05 
-2.5791281102872405 0:288 1:1 2:-0.0402591 3:-0.156942 6:1 11:1 25:1 30:-0.165288 32:1 33:-0.0169392 34:1 37:1 38:-0.000338375 39:-3.74232e-05 
-10 0:298 1:1 2:-0.056938 3:-0.173713 5:1 16:1 25:1 30:0.0359114 31:1 32:1 33:0.152452 34:1 37:1 38:0.000810435 39:-2.47322e-05 
-8.6881037975868587 0:299 1:1 2:-0.104409 3:-0.178764 5:1 11:1 25:1 30:-0.172889 33:-0.101635 36:1 38:0.000540126 39:-3.75338e-05 
-10 0:300 1:1 2:-0.0794618 3:-0.192301 6:1 15:1 25:1 30:-0.198822 33:-0.101635 38:-4.89689e-07 39:-3.75338e-05 
-0.66958282322445928 0:307 1:1 2:0.144421 3:-0.109864 5:1 8:1 22:1 30:-0.0646884 33:-0.101635 37:1 38:-0.00216295 39:-3.74969e-05 
-9.905857640342056 0:308 2:-0.0468166 3:0.252212 5:1 13:1 25:1 30:0.203578 31:1 33:-0.101635 37:1 38:-0.00216295 39:-3.75338e-05 
-5.1647880083181548 0:313 1:1 2:-0.0961407 3:0.0804679 5:1 14:1 25:1 30:-0.195245 33:-0.101635 37:1 38:-0.00148718 39:-3.75338e-05 
-1.6400863355130002 0:317 1:1 2:-0.0628541 3:0.272417 6:1 10:1 25:1 30:-0.161711 33:-0.101635 37:1 38:-0.00621758 39:-3.75338e-05 
-9.8529544729538845 0:321 2:-0.094929 3:0.211801 6:1 16:1 25:1 30:-0.109399 32:1 33:-0.0592871 37:1 38:-0.00216295 39:-3.74969e-05 
-10 0:323 1:1 2:0.0102055 3:-0.0912756 5:1 16:1 25:1 30:0.427133 33:-0.101635 34:1 37:1 38:0.00324321 39:-3.75338e-05 
-4.2375652261545298 0:324 1:1 2:0.0221089 3:-0.148658 6:1 14:1 25:1 30:-0.0946448 33:-0.101635 36:1 38:-0.0052715 39:-3.75338e-05 
-9.756582952279345 0:325 1:1 2:0.00186603 3:-0.0912756 6:1 13:1 25:1 30:0.471844 31:1 33:-0.101635 34:1 37:1 38:0.0114538 39:-3.75338e-05 
-6.2909508339562787 0:328 2:0.0232493 3:-0.141788 5:1 10:1 29:1 30:-0.154111 33:-0.101635 34:1 37:1 38:-0.000811414 39:-3.75338e-05 
-10 0:329 1:1 2:0.0903929 3:0.252212 5:1 9:1 25:1 30:-0.0646884 31:1 33:-0.101635 36:1 38:-0.00621758 39:-3.75338e-05 
-7.3255392200365543 0:331 2:0.016763 3:-0.128251 5:1 8:1 22:1 30:-0.198822 31:1 33:-0.101635 37:1 38:0.00459475 39:-3.75338e-05 
-10 0:334 1:1 2:-0.0610721 3:-0.167045 5:1 13:1 25:1 30:-0.187644 31:1 33:-0.101635 37:1 38:-0.000135644 39:-3.74969e-05 
-10 0:335 1:1 2:0.0191152 3:-0.121583 6:1 16:1 26:1 30:-0.176466 31:1 33:-0.101635 34:1 37:1 38:-0.000710048 39:-3.75338e-05 
-10 0:336 2:0.0957387 3:-0.00702026 6:1 11:1 29:1 30:-0.109399 33:-0.101635 34:1 36:1 38:0.00189167 39:-3.75338e-05 
-8.5566017029186963 0:337 1:1 2:-0.0865895 3:0.100673 6:1 14:1 25:1 30:-0.195245 32:1 33:-0.0592871 37:1 38:-0.00283872 39:-3.74969e-05 
-1.3594990888159881 0:339 2:-0.0575082 3:-0.131686 6:1 16:1 25:1 30:-0.120577 33:-0.101635 34:1 37:1 38:-0.000811414 39:-3.75338e-05 
-8.2451398061857439 0:341 2:0.0114172 3:-0.101378 5:1 20:1 25:1 30:0.114156 33:-0.101635 34:1 37:1 38:0.000540126 39:-3.2332e-05 
-6.8117966884900856 0:342 1:1 2:-0.0545146 3:-0.168661 5:1 20:1 29:1 30:-0.187644 33:-0.101635 37:1 38:0.00189167 39:-3.74969e-05 
-5.7223089478015092 0:356 2:-0.0771096 3:0.193213 6:1 10:1 25:1 30:-0.195245 33:-0.101635 37:1 38:0.000540126 39:-6.41394e-07 
-9.6756843531384948 0:360 1:1 2:0.0541838 3:-0.0912756 5:1 10:1 29:1 30:0.695399 33:-0.101635 34:1 36:1 38:0.000540126 39:-3.75338e-05 
-7.0711055154253275 0:362 2:-0.0277855 3:-0.109864 6:1 16:1 25:1 30:-0.176466 33:-0.101635 34:1 37:1 38:-0.000135644 39:-3.56892e-05 
-0.47884682316164778 0:365 2:-0.0818852 3:-0.141788 6:1 15:1 25:1 30:-0.198822 33:-0.101635 37:1 38:-0.00621758 39:-3.75338e-05 
-7.4137389747056863 0:366 2:-0.028427 3:-0.0710705 6:1 14:1 25:1 30:0.050666 32:1 33:-0.0592871 34:1 37:1 38:0.00324321 39:-3.71649e-05 
-4.1570026615175877 0:370 1:1 2:-0.042041 3:-0.102995 5:1 13:1 25:1 30:0.158867 31:1 33:-0.101635 37:1 38:0.000134664 39:-3.75338e-05 
-1.4218985300837048 0:371 1:1 2:-0.0616423 3:-0.0644028 5:1 15:1 25:1 30:-0.184067 33:-0.101635 37:1 38:-0.000811414 39:1.49837e-06 
-1.9761469288204498 0:372 1:1 2:0.117692 3:-0.0407628 6:1 10:1 26:1 30:-0.109399 33:-0.101635 37:1 38:-0.00283872 39:-3.746e-05 
-5.7610509790119808 0:373 1:1 2:-0.0925769 3:0.22352 6:1 8:1 22:1 30:-0.161711 33:-0.101635 37:1 38:-0.00351449 39:-3.75338e-05 
-10 0:376 1:1 2:-0.0919353 3:0.00975 6:1 18:1 25:1 30:-0.165288 31:1 32:1 33:-0.0169392 37:1 38:-0.00621758 39:-3.61319e-05 
-7.7546925481740212 0:381 2:-0.0990631 3:-0.192301 5:1 12:1 22:1 30:-0.198822 33:-0.101635 37:1 38:-0.00331176 39:-3.75338e-05 
-10 0:384 2:-0.0473868 3:-0.141788 6:1 8:1 22:1 30:-0.198822 31:1 33:-0.101635 37:1 38:-0.00351449 39:-3.75338e-05 
-3.4234876365001137 0:386 2:0.00485969 3:-0.131686 6:1 15:1 25:1 30:-0.176466 33:-0.101635 34:1 37:1 38:0.00635175 39:-3.3033e-05 
-7.8606033972200819 0:392 1:1 2:-0.0384771 3:0.312827 5:1 11:1 29:1 30:-0.087044 33:-0.101635 34:1 37:1 38:-0.00621758 39:-3.69067e-05 
-8.5753930264102802 0:393 1:1 2:-0.0610721 3:-0.161994 6:1 14:1 25:1 30:-0.154111 31:1 33:-0.101635 34:1 36:1 38:0.00459475 39:-3.75338e-05 
-1.6323332044399061 0:394 1:1 2:-0.042041 3:-0.180582 5:1 15:1 25:1 30:-0.0646884 33:-0.101635 34:1 37:1 38:-0.000811414 39:-3.75338e-05 
